<?xml version="1.0"?>
<opencv_storage>
<cascade>
  <stageType>BOOST</stageType>
  <featureType>HAAR</featureType>
  <height>24</height>
  <width>24</width>
  <stageParams>
    <boostType>GAB</boostType>
    <minHitRate>9.9500000476837158e-01</minHitRate>
    <maxFalseAlarm>5.0000000000000000e-01</maxFalseAlarm>
    <weightTrimRate>9.4999998807907104e-01</weightTrimRate>
    <maxDepth>1</maxDepth>
    <maxWeakCount>100</maxWeakCount></stageParams>
  <featureParams>
    <maxCatCount>0</maxCatCount>
    <featSize>1</featSize>
    <mode>BASIC</mode></featureParams>
  <stageNum>17</stageNum>
  <stages>
    <!-- stage 0 -->
    <_>
      <maxWeakCount>4</maxWeakCount>
      <stageThreshold>-9.6933466196060181e-01</stageThreshold>
      <weakClassifiers>
        <_>
          <internalNodes>
            0 -1 48 -4.0411688387393951e-02</internalNodes>
          <leafValues>
            9.3160229921340942e-01 -6.2798935174942017e-01</leafValues></_>
        <_>
          <internalNodes>
            0 -1 83 1.7088431864976883e-02</internalNodes>
          <leafValues>
            -5.5432933568954468e-01 8.4111958742141724e-01</leafValues></_>
        <_>
          <internalNodes>
            0 -1 41 3.4531578421592712e-02</internalNodes>
          <leafValues>
            -4.2736217379570007e-01 8.9025193452835083e-01</leafValues></_>
        <_>
          <internalNodes>
            0 -1 12 -2.1135941147804260e-02</internalNodes>
          <leafValues>
            6.4034622907638550e-01 -6.5691816806793213e-01</leafValues></_></weakClassifiers></_>
    <!-- stage 1 -->
    <_>
      <maxWeakCount>5</maxWeakCount>
      <stageThreshold>-6.4541512727737427e-01</stageThreshold>
      <weakClassifiers>
        <_>
          <internalNodes>
            0 -1 59 -2.3147236555814743e-02</internalNodes>
          <leafValues>
            9.1391706466674805e-01 -5.8491396903991699e-01</leafValues></_>
        <_>
          <internalNodes>
            0 -1 50 1.1916756629943848e-02</internalNodes>
          <leafValues>
            -4.7689378261566162e-01 8.4335452318191528e-01</leafValues></_>
        <_>
          <internalNodes>
            0 -1 19 -2.4359866976737976e-02</internalNodes>
          <leafValues>
            6.2017935514450073e-01 -6.9444030523300171e-01</leafValues></_>
        <_>
          <internalNodes>
            0 -1 5 -7.7994877938181162e-04</internalNodes>
          <leafValues>
            3.4760850667953491e-01 -9.3422347307205200e-01</leafValues></_>
        <_>
          <internalNodes>
            0 -1 77 -2.7989495545625687e-02</internalNodes>
          <leafValues>
            7.6322442293167114e-01 -4.6872258186340332e-01</leafValues></_></weakClassifiers></_>
    <!-- stage 2 -->
    <_>
      <maxWeakCount>4</maxWeakCount>
      <stageThreshold>-7.3202031850814819e-01</stageThreshold>
      <weakClassifiers>
        <_>
          <internalNodes>
            0 -1 49 -7.1626678109169006e-02</internalNodes>
          <leafValues>
            9.3453902006149292e-01 -4.8884871602058411e-01</leafValues></_>
        <_>
          <internalNodes>
            0 -1 42 9.7687579691410065e-03</internalNodes>
          <leafValues>
            -4.3286019563674927e-01 9.0024596452713013e-01</leafValues></_>
        <_>
          <internalNodes>
            0 -1 71 4.0254779160022736e-02</internalNodes>
          <leafValues>
            -6.3955461978912354e-01 6.2868309020996094e-01</leafValues></_>
        <_>
          <internalNodes>
            0 -1 20 -2.3223144933581352e-02</internalNodes>
          <leafValues>
            8.2924318313598633e-01 -3.7957379221916199e-01</leafValues></_></weakClassifiers></_>
    <!-- stage 3 -->
    <_>
      <maxWeakCount>6</maxWeakCount>
      <stageThreshold>-1.2851040363311768e+00</stageThreshold>
      <weakClassifiers>
        <_>
          <internalNodes>
            0 -1 23 2.6896107941865921e-02</internalNodes>
          <leafValues>
            -5.4283195734024048e-01 8.9480370283126831e-01</leafValues></_>
        <_>
          <internalNodes>
            0 -1 74 -2.5268277153372765e-02</internalNodes>
          <leafValues>
            8.7617403268814087e-01 -3.7204778194427490e-01</leafValues></_>
        <_>
          <internalNodes>
            0 -1 9 -7.5643220043275505e-05</internalNodes>
          <leafValues>
            4.6408587694168091e-01 -9.0386968851089478e-01</leafValues></_>
        <_>
          <internalNodes>
            0 -1 31 3.8444317877292633e-02</internalNodes>
          <leafValues>
            -5.4852902889251709e-01 6.4298170804977417e-01</leafValues></_>
        <_>
          <internalNodes>
            0 -1 2 -6.9418653845787048e-02</internalNodes>
          <leafValues>
            5.8903890848159790e-01 -6.1146610975265503e-01</leafValues></_>
        <_>
          <internalNodes>
            0 -1 4 2.6093359338119626e-04</internalNodes>
          <leafValues>
            3.2568496465682983e-01 -9.3792098760604858e-01</leafValues></_></weakClassifiers></_>
    <!-- stage 4 -->
    <_>
      <maxWeakCount>5</maxWeakCount>
      <stageThreshold>-8.7772685289382935e-01</stageThreshold>
      <weakClassifiers>
        <_>
          <internalNodes>
            0 -1 24 1.7041772603988647e-02</internalNodes>
          <leafValues>
            -4.8396563529968262e-01 9.0020608901977539e-01</leafValues></_>
        <_>
          <internalNodes>
            0 -1 78 -1.8505401909351349e-02</internalNodes>
          <leafValues>
            7.5923210382461548e-01 -5.6110978126525879e-01</leafValues></_>
        <_>
          <internalNodes>
            0 -1 46 8.6703319102525711e-03</internalNodes>
          <leafValues>
            -4.9291631579399109e-01 7.2026669979095459e-01</leafValues></_>
        <_>
          <internalNodes>
            0 -1 3 6.5369333606213331e-04</internalNodes>
          <leafValues>
            4.0064054727554321e-01 -9.2224699258804321e-01</leafValues></_>
        <_>
          <internalNodes>
            0 -1 11 -6.7772960755974054e-04</internalNodes>
          <leafValues>
            -9.3269014358520508e-01 2.5962430238723755e-01</leafValues></_></weakClassifiers></_>
    <!-- stage 5 -->
    <_>
      <maxWeakCount>6</maxWeakCount>
      <stageThreshold>-1.2839282751083374e+00</stageThreshold>
      <weakClassifiers>
        <_>
          <internalNodes>
            0 -1 72 -2.1492538973689079e-02</internalNodes>
          <leafValues>
            8.8171696662902832e-01 -4.5665472745895386e-01</leafValues></_>
        <_>
          <internalNodes>
            0 -1 53 5.4656434804201126e-03</internalNodes>
          <leafValues>
            -5.6204062700271606e-01 7.4697679281234741e-01</leafValues></_>
        <_>
          <internalNodes>
            0 -1 28 2.0119402557611465e-02</internalNodes>
          <leafValues>
            -4.4049489498138428e-01 7.8426688909530640e-01</leafValues></_>
        <_>
          <internalNodes>
            0 -1 3 -4.5741064241155982e-04</internalNodes>
          <leafValues>
            -8.9757543802261353e-01 3.8355749845504761e-01</leafValues></_>
        <_>
          <internalNodes>
            0 -1 60 3.3811107277870178e-03</internalNodes>
          <leafValues>
            -5.1296985149383545e-01 5.4225474596023560e-01</leafValues></_>
        <_>
          <internalNodes>
            0 -1 90 -4.2184175981674343e-05</internalNodes>
          <leafValues>
            3.0467444658279419e-01 -9.3570166826248169e-01</leafValues></_></weakClassifiers></_>
    <!-- stage 6 -->
    <_>
      <maxWeakCount>5</maxWeakCount>
      <stageThreshold>-6.6878533363342285e-01</stageThreshold>
      <weakClassifiers>
        <_>
          <internalNodes>
            0 -1 48 -6.3338458538055420e-02</internalNodes>
          <leafValues>
            8.8207697868347168e-01 -4.9512037634849548e-01</leafValues></_>
        <_>
          <internalNodes>
            0 -1 65 -2.1685194224119186e-03</internalNodes>
          <leafValues>
            7.2825056314468384e-01 -5.5505132675170898e-01</leafValues></_>
        <_>
          <internalNodes>
            0 -1 79 -1.0652605444192886e-02</internalNodes>
          <leafValues>
            8.0446821451187134e-01 -4.0296733379364014e-01</leafValues></_>
        <_>
          <internalNodes>
            0 -1 96 1.0349635267630219e-03</internalNodes>
          <leafValues>
            3.9503455162048340e-01 -9.1594779491424561e-01</leafValues></_>
        <_>
          <internalNodes>
            0 -1 1 -5.4457478225231171e-02</internalNodes>
          <leafValues>
            3.8931918144226074e-01 -6.9961971044540405e-01</leafValues></_></weakClassifiers></_>
    <!-- stage 7 -->
    <_>
      <maxWeakCount>6</maxWeakCount>
      <stageThreshold>-1.0579324960708618e+00</stageThreshold>
      <weakClassifiers>
        <_>
          <internalNodes>
            0 -1 26 1.0246223770081997e-02</internalNodes>
          <leafValues>
            -3.6381173133850098e-01 8.9439016580581665e-01</leafValues></_>
        <_>
          <internalNodes>
            0 -1 45 -4.8602256923913956e-02</internalNodes>
          <leafValues>
            7.2466647624969482e-01 -5.1454102993011475e-01</leafValues></_>
        <_>
          <internalNodes>
            0 -1 61 -4.1323024779558182e-03</internalNodes>
          <leafValues>
            7.6380538940429688e-01 -4.4251632690429688e-01</leafValues></_>
        <_>
          <internalNodes>
            0 -1 94 -3.3069736673496664e-05</internalNodes>
          <leafValues>
            3.9184823632240295e-01 -8.7079030275344849e-01</leafValues></_>
        <_>
          <internalNodes>
            0 -1 76 -4.7854498028755188e-02</internalNodes>
          <leafValues>
            6.5874618291854858e-01 -4.3114244937896729e-01</leafValues></_>
        <_>
          <internalNodes>
            0 -1 99 -3.6192468542139977e-05</internalNodes>
          <leafValues>
            3.0223083496093750e-01 -8.7470132112503052e-01</leafValues></_></weakClassifiers></_>
    <!-- stage 8 -->
    <_>
      <maxWeakCount>5</maxWeakCount>
      <stageThreshold>-8.2397288084030151e-01</stageThreshold>
      <weakClassifiers>
        <_>
          <internalNodes>
            0 -1 40 3.1684488058090210e-02</internalNodes>
          <leafValues>
            -6.4561891555786133e-01 7.9951900243759155e-01</leafValues></_>
        <_>
          <internalNodes>
            0 -1 63 -2.5834199041128159e-02</internalNodes>
          <leafValues>
            7.5340980291366577e-01 -5.1939415931701660e-01</leafValues></_>
        <_>
          <internalNodes>
            0 -1 21 -2.1121494472026825e-02</internalNodes>
          <leafValues>
            7.3002129793167114e-01 -4.2505812644958496e-01</leafValues></_>
        <_>
          <internalNodes>
            0 -1 93 8.5144396871328354e-04</internalNodes>
          <leafValues>
            3.8166171312332153e-01 -8.6528450250625610e-01</leafValues></_>
        <_>
          <internalNodes>
            0 -1 70 7.5906299054622650e-02</internalNodes>
          <leafValues>
            -6.1147284507751465e-01 3.8443660736083984e-01</leafValues></_></weakClassifiers></_>
    <!-- stage 9 -->
    <_>
      <maxWeakCount>6</maxWeakCount>
      <stageThreshold>-1.2201157808303833e+00</stageThreshold>
      <weakClassifiers>
        <_>
          <internalNodes>
            0 -1 38 -3.4499358385801315e-02</internalNodes>
          <leafValues>
            8.3510476350784302e-01 -4.8918354511260986e-01</leafValues></_>
        <_>
          <internalNodes>
            0 -1 86 -5.7865483686327934e-03</internalNodes>
          <leafValues>
            7.7616333961486816e-01 -4.2608544230461121e-01</leafValues></_>
        <_>
          <internalNodes>
            0 -1 52 -1.4298945898190141e-03</internalNodes>
          <leafValues>
            6.4206880331039429e-01 -4.9919173121452332e-01</leafValues></_>
        <_>
          <internalNodes>
            0 -1 25 -4.1721472516655922e-03</internalNodes>
          <leafValues>
            -9.2611771821975708e-01 3.0706900358200073e-01</leafValues></_>
        <_>
          <internalNodes>
            0 -1 27 2.6439256966114044e-02</internalNodes>
          <leafValues>
            -4.1446906328201294e-01 6.1781036853790283e-01</leafValues></_>
        <_>
          <internalNodes>
            0 -1 89 -1.2130811810493469e-03</internalNodes>
          <leafValues>
            3.0174502730369568e-01 -8.9151275157928467e-01</leafValues></_></weakClassifiers></_>
    <!-- stage 10 -->
    <_>
      <maxWeakCount>7</maxWeakCount>
      <stageThreshold>-9.5453995466232300e-01</stageThreshold>
      <weakClassifiers>
        <_>
          <internalNodes>
            0 -1 69 4.0321536362171173e-03</internalNodes>
          <leafValues>
            -4.0335243940353394e-01 8.5059827566146851e-01</leafValues></_>
        <_>
          <internalNodes>
            0 -1 37 1.6706321388483047e-02</internalNodes>
          <leafValues>
            -4.9495416879653931e-01 7.0276123285293579e-01</leafValues></_>
        <_>
          <internalNodes>
            0 -1 29 1.1626139283180237e-02</internalNodes>
          <leafValues>
            -3.1793767213821411e-01 7.9598253965377808e-01</leafValues></_>
        <_>
          <internalNodes>
            0 -1 97 -5.8847211766988039e-04</internalNodes>
          <leafValues>
            -9.1572970151901245e-01 3.3698859810829163e-01</leafValues></_>
        <_>
          <internalNodes>
            0 -1 82 1.4372730627655983e-02</internalNodes>
          <leafValues>
            -5.1121813058853149e-01 4.7436255216598511e-01</leafValues></_>
        <_>
          <internalNodes>
            0 -1 15 -4.5227294322103262e-04</internalNodes>
          <leafValues>
            2.2804473340511322e-01 -9.0688157081604004e-01</leafValues></_>
        <_>
          <internalNodes>
            0 -1 17 -3.3867814636323601e-05</internalNodes>
          <leafValues>
            2.0788913965225220e-01 -8.5424751043319702e-01</leafValues></_></weakClassifiers></_>
    <!-- stage 11 -->
    <_>
      <maxWeakCount>7</maxWeakCount>
      <stageThreshold>-1.0689518451690674e+00</stageThreshold>
      <weakClassifiers>
        <_>
          <internalNodes>
            0 -1 75 -9.9211409687995911e-03</internalNodes>
          <leafValues>
            8.3973819017410278e-01 -4.3470561504364014e-01</leafValues></_>
        <_>
          <internalNodes>
            0 -1 55 2.1686833351850510e-03</internalNodes>
          <leafValues>
            -5.6054383516311646e-01 6.6227108240127563e-01</leafValues></_>
        <_>
          <internalNodes>
            0 -1 28 2.3394353687763214e-02</internalNodes>
          <leafValues>
            -3.9424583315849304e-01 6.9068533182144165e-01</leafValues></_>
        <_>
          <internalNodes>
            0 -1 44 3.0663802754133940e-03</internalNodes>
          <leafValues>
            3.1441831588745117e-01 -8.7952882051467896e-01</leafValues></_>
        <_>
          <internalNodes>
            0 -1 33 2.3852386511862278e-03</internalNodes>
          <leafValues>
            -4.6092015504837036e-01 4.8200941085815430e-01</leafValues></_>
        <_>
          <internalNodes>
            0 -1 16 -1.1314880102872849e-03</internalNodes>
          <leafValues>
            -8.9505940675735474e-01 2.5939118862152100e-01</leafValues></_>
        <_>
          <internalNodes>
            0 -1 73 -1.7551979050040245e-02</internalNodes>
          <leafValues>
            2.0765408873558044e-01 -8.3185046911239624e-01</leafValues></_></weakClassifiers></_>
    <!-- stage 12 -->
    <_>
      <maxWeakCount>7</maxWeakCount>
      <stageThreshold>-1.0777699947357178e+00</stageThreshold>
      <weakClassifiers>
        <_>
          <internalNodes>
            0 -1 51 2.5830087251961231e-03</internalNodes>
          <leafValues>
            -5.3192597627639771e-01 7.9099774360656738e-01</leafValues></_>
        <_>
          <internalNodes>
            0 -1 72 -3.0233968049287796e-02</internalNodes>
          <leafValues>
            7.4982649087905884e-01 -4.0790909528732300e-01</leafValues></_>
        <_>
          <internalNodes>
            0 -1 36 6.5460209734737873e-03</internalNodes>
          <leafValues>
            -4.4418436288833618e-01 6.0509705543518066e-01</leafValues></_>
        <_>
          <internalNodes>
            0 -1 92 1.0378453880548477e-03</internalNodes>
          <leafValues>
            2.7360934019088745e-01 -8.9281100034713745e-01</leafValues></_>
        <_>
          <internalNodes>
            0 -1 56 4.8600044101476669e-03</internalNodes>
          <leafValues>
            -3.9304426312446594e-01 6.1176031827926636e-01</leafValues></_>
        <_>
          <internalNodes>
            0 -1 7 -3.3429896575398743e-05</internalNodes>
          <leafValues>
            2.8497368097305298e-01 -8.4350794553756714e-01</leafValues></_>
        <_>
          <internalNodes>
            0 -1 6 5.3865101654082537e-04</internalNodes>
          <leafValues>
            1.4071069657802582e-01 -9.3479216098785400e-01</leafValues></_></weakClassifiers></_>
    <!-- stage 13 -->
    <_>
      <maxWeakCount>8</maxWeakCount>
      <stageThreshold>-1.0302088260650635e+00</stageThreshold>
      <weakClassifiers>
        <_>
          <internalNodes>
            0 -1 28 1.3714678585529327e-02</internalNodes>
          <leafValues>
            -4.9451670050621033e-01 7.8746646642684937e-01</leafValues></_>
        <_>
          <internalNodes>
            0 -1 62 -3.1088099349290133e-03</internalNodes>
          <leafValues>
            6.1126172542572021e-01 -5.6240642070770264e-01</leafValues></_>
        <_>
          <internalNodes>
            0 -1 84 1.3214260339736938e-02</internalNodes>
          <leafValues>
            -6.7741411924362183e-01 4.1231775283813477e-01</leafValues></_>
        <_>
          <internalNodes>
            0 -1 30 6.5066684037446976e-03</internalNodes>
          <leafValues>
            -3.6445575952529907e-01 6.6728818416595459e-01</leafValues></_>
        <_>
          <internalNodes>
            0 -1 100 -3.0371968023246154e-05</internalNodes>
          <leafValues>
            2.8309094905853271e-01 -8.0204045772552490e-01</leafValues></_>
        <_>
          <internalNodes>
            0 -1 88 -7.7334459638223052e-04</internalNodes>
          <leafValues>
            -8.6272126436233521e-01 1.8038910627365112e-01</leafValues></_>
        <_>
          <internalNodes>
            0 -1 43 -7.0051290094852448e-03</internalNodes>
          <leafValues>
            4.3274062871932983e-01 -4.2615520954132080e-01</leafValues></_>
        <_>
          <internalNodes>
            0 -1 22 -1.0710735805332661e-03</internalNodes>
          <leafValues>
            -8.4482151269912720e-01 1.6776308417320251e-01</leafValues></_></weakClassifiers></_>
    <!-- stage 14 -->
    <_>
      <maxWeakCount>7</maxWeakCount>
      <stageThreshold>-8.3298337459564209e-01</stageThreshold>
      <weakClassifiers>
        <_>
          <internalNodes>
            0 -1 49 -9.3223989009857178e-02</internalNodes>
          <leafValues>
            8.5248291492462158e-01 -3.1860327720642090e-01</leafValues></_>
        <_>
          <internalNodes>
            0 -1 64 -2.6733200065791607e-03</internalNodes>
          <leafValues>
            6.1650604009628296e-01 -6.1727732419967651e-01</leafValues></_>
        <_>
          <internalNodes>
            0 -1 57 -5.6245876476168633e-03</internalNodes>
          <leafValues>
            6.9572669267654419e-01 -3.7848275899887085e-01</leafValues></_>
        <_>
          <internalNodes>
            0 -1 13 -5.1694128662347794e-02</internalNodes>
          <leafValues>
            4.0819847583770752e-01 -6.2656134366989136e-01</leafValues></_>
        <_>
          <internalNodes>
            0 -1 80 -1.2550197541713715e-02</internalNodes>
          <leafValues>
            5.9731626510620117e-01 -3.5189276933670044e-01</leafValues></_>
        <_>
          <internalNodes>
            0 -1 14 -4.7943668323569000e-04</internalNodes>
          <leafValues>
            2.3783695697784424e-01 -8.6898589134216309e-01</leafValues></_>
        <_>
          <internalNodes>
            0 -1 0 8.1381160998716950e-04</internalNodes>
          <leafValues>
            1.8723733723163605e-01 -7.9658567905426025e-01</leafValues></_></weakClassifiers></_>
    <!-- stage 15 -->
    <_>
      <maxWeakCount>10</maxWeakCount>
      <stageThreshold>-1.1133993864059448e+00</stageThreshold>
      <weakClassifiers>
        <_>
          <internalNodes>
            0 -1 32 1.0344462469220161e-02</internalNodes>
          <leafValues>
            -4.8513340950012207e-01 7.8557932376861572e-01</leafValues></_>
        <_>
          <internalNodes>
            0 -1 68 -2.5780707597732544e-02</internalNodes>
          <leafValues>
            6.8848073482513428e-01 -4.7267624735832214e-01</leafValues></_>
        <_>
          <internalNodes>
            0 -1 47 1.1800972279161215e-03</internalNodes>
          <leafValues>
            -4.2532235383987427e-01 5.4589855670928955e-01</leafValues></_>
        <_>
          <internalNodes>
            0 -1 18 -2.9811435524607077e-05</internalNodes>
          <leafValues>
            2.8275051712989807e-01 -8.0946391820907593e-01</leafValues></_>
        <_>
          <internalNodes>
            0 -1 35 -4.1412934660911560e-02</internalNodes>
          <leafValues>
            5.0402438640594482e-01 -4.2792704701423645e-01</leafValues></_>
        <_>
          <internalNodes>
            0 -1 91 -1.2723173131234944e-04</internalNodes>
          <leafValues>
            2.3163466155529022e-01 -8.7621307373046875e-01</leafValues></_>
        <_>
          <internalNodes>
            0 -1 95 4.0141185745596886e-03</internalNodes>
          <leafValues>
            1.6572770476341248e-01 -9.2745447158813477e-01</leafValues></_>
        <_>
          <internalNodes>
            0 -1 85 -1.5454541891813278e-02</internalNodes>
          <leafValues>
            6.3054096698760986e-01 -3.0703231692314148e-01</leafValues></_>
        <_>
          <internalNodes>
            0 -1 10 -3.1955074518918991e-05</internalNodes>
          <leafValues>
            1.8827322125434875e-01 -8.6071771383285522e-01</leafValues></_>
        <_>
          <internalNodes>
            0 -1 8 4.4445646926760674e-04</internalNodes>
          <leafValues>
            1.3630594313144684e-01 -8.8601815700531006e-01</leafValues></_></weakClassifiers></_>
    <!-- stage 16 -->
    <_>
      <maxWeakCount>10</maxWeakCount>
      <stageThreshold>-1.2425860166549683e+00</stageThreshold>
      <weakClassifiers>
        <_>
          <internalNodes>
            0 -1 39 -1.0265661403536797e-02</internalNodes>
          <leafValues>
            8.0274480581283569e-01 -4.3729296326637268e-01</leafValues></_>
        <_>
          <internalNodes>
            0 -1 81 1.1823270469903946e-02</internalNodes>
          <leafValues>
            -4.8830097913742065e-01 6.2838554382324219e-01</leafValues></_>
        <_>
          <internalNodes>
            0 -1 58 -4.1700266301631927e-03</internalNodes>
          <leafValues>
            4.1393399238586426e-01 -5.7275009155273438e-01</leafValues></_>
        <_>
          <internalNodes>
            0 -1 66 -1.8302290700376034e-03</internalNodes>
          <leafValues>
            3.3594873547554016e-01 -6.0840427875518799e-01</leafValues></_>
        <_>
          <internalNodes>
            0 -1 101 -3.1881550967227668e-05</internalNodes>
          <leafValues>
            2.1841433644294739e-01 -8.2358640432357788e-01</leafValues></_>
        <_>
          <internalNodes>
            0 -1 67 -6.9618877023458481e-04</internalNodes>
          <leafValues>
            3.8570645451545715e-01 -4.8427572846412659e-01</leafValues></_>
        <_>
          <internalNodes>
            0 -1 98 -2.5755256501724944e-05</internalNodes>
          <leafValues>
            2.2321896255016327e-01 -7.6161015033721924e-01</leafValues></_>
        <_>
          <internalNodes>
            0 -1 54 8.3093461580574512e-04</internalNodes>
          <leafValues>
            -4.2184311151504517e-01 4.1812720894813538e-01</leafValues></_>
        <_>
          <internalNodes>
            0 -1 87 1.9573394209146500e-02</internalNodes>
          <leafValues>
            -6.5114212036132813e-01 2.4490951001644135e-01</leafValues></_>
        <_>
          <internalNodes>
            0 -1 34 2.2410665405914187e-04</internalNodes>
          <leafValues>
            1.6545477509498596e-01 -7.9512929916381836e-01</leafValues></_></weakClassifiers></_></stages>
  <features>
    <_>
      <rects>
        <_>
          0 0 22 2 -1.</_>
        <_>
          0 0 11 1 2.</_>
        <_>
          11 1 11 1 2.</_></rects>
      <tilted>0</tilted></_>
    <_>
      <rects>
        <_>
          0 4 10 16 -1.</_>
        <_>
          5 4 5 16 2.</_></rects>
      <tilted>0</tilted></_>
    <_>
      <rects>
        <_>
          0 4 10 18 -1.</_>
        <_>
          5 4 5 18 2.</_></rects>
      <tilted>0</tilted></_>
    <_>
      <rects>
        <_>
          0 5 1 6 -1.</_>
        <_>
          0 7 1 2 3.</_></rects>
      <tilted>0</tilted></_>
    <_>
      <rects>
        <_>
          0 7 2 4 -1.</_>
        <_>
          0 9 2 2 2.</_></rects>
      <tilted>0</tilted></_>
    <_>
      <rects>
        <_>
          0 9 3 8 -1.</_>
        <_>
          0 13 3 4 2.</_></rects>
      <tilted>0</tilted></_>
    <_>
      <rects>
        <_>
          0 11 1 6 -1.</_>
        <_>
          0 13 1 2 3.</_></rects>
      <tilted>0</tilted></_>
    <_>
      <rects>
        <_>
          0 13 1 4 -1.</_>
        <_>
          0 15 1 2 2.</_></rects>
      <tilted>0</tilted></_>
    <_>
      <rects>
        <_>
          0 13 1 6 -1.</_>
        <_>
          0 15 1 2 3.</_></rects>
      <tilted>0</tilted></_>
    <_>
      <rects>
        <_>
          0 14 2 6 -1.</_>
        <_>
          0 17 2 3 2.</_></rects>
      <tilted>0</tilted></_>
    <_>
      <rects>
        <_>
          0 15 1 4 -1.</_>
        <_>
          0 17 1 2 2.</_></rects>
      <tilted>0</tilted></_>
    <_>
      <rects>
        <_>
          0 15 1 6 -1.</_>
        <_>
          0 17 1 2 3.</_></rects>
      <tilted>0</tilted></_>
    <_>
      <rects>
        <_>
          1 4 8 10 -1.</_>
        <_>
          5 4 4 10 2.</_></rects>
      <tilted>0</tilted></_>
    <_>
      <rects>
        <_>
          1 4 8 17 -1.</_>
        <_>
          5 4 4 17 2.</_></rects>
      <tilted>0</tilted></_>
    <_>
      <rects>
        <_>
          1 5 3 8 -1.</_>
        <_>
          1 9 3 4 2.</_></rects>
      <tilted>0</tilted></_>
    <_>
      <rects>
        <_>
          1 9 3 6 -1.</_>
        <_>
          1 12 3 3 2.</_></rects>
      <tilted>0</tilted></_>
    <_>
      <rects>
        <_>
          1 13 2 6 -1.</_>
        <_>
          1 15 2 2 3.</_></rects>
      <tilted>0</tilted></_>
    <_>
      <rects>
        <_>
          2 13 1 4 -1.</_>
        <_>
          2 15 1 2 2.</_></rects>
      <tilted>0</tilted></_>
    <_>
      <rects>
        <_>
          3 11 1 4 -1.</_>
        <_>
          3 13 1 2 2.</_></rects>
      <tilted>0</tilted></_>
    <_>
      <rects>
        <_>
          4 0 5 12 -1.</_>
        <_>
          4 6 5 6 2.</_></rects>
      <tilted>0</tilted></_>
    <_>
      <rects>
        <_>
          4 7 6 4 -1.</_>
        <_>
          6 7 2 4 3.</_></rects>
      <tilted>0</tilted></_>
    <_>
      <rects>
        <_>
          4 8 6 3 -1.</_>
        <_>
          6 8 2 3 3.</_></rects>
      <tilted>0</tilted></_>
    <_>
      <rects>
        <_>
          5 0 16 2 -1.</_>
        <_>
          5 0 8 1 2.</_>
        <_>
          13 1 8 1 2.</_></rects>
      <tilted>0</tilted></_>
    <_>
      <rects>
        <_>
          5 4 8 6 -1.</_>
        <_>
          5 4 4 3 2.</_>
        <_>
          9 7 4 3 2.</_></rects>
      <tilted>0</tilted></_>
    <_>
      <rects>
        <_>
          5 5 4 10 -1.</_>
        <_>
          5 5 2 5 2.</_>
        <_>
          7 10 2 5 2.</_></rects>
      <tilted>0</tilted></_>
    <_>
      <rects>
        <_>
          6 0 18 1 -1.</_>
        <_>
          12 0 6 1 3.</_></rects>
      <tilted>0</tilted></_>
    <_>
      <rects>
        <_>
          6 3 2 12 -1.</_>
        <_>
          6 3 1 6 2.</_>
        <_>
          7 9 1 6 2.</_></rects>
      <tilted>0</tilted></_>
    <_>
      <rects>
        <_>
          6 3 6 6 -1.</_>
        <_>
          6 3 3 3 2.</_>
        <_>
          9 6 3 3 2.</_></rects>
      <tilted>0</tilted></_>
    <_>
      <rects>
        <_>
          6 4 4 8 -1.</_>
        <_>
          6 4 2 4 2.</_>
        <_>
          8 8 2 4 2.</_></rects>
      <tilted>0</tilted></_>
    <_>
      <rects>
        <_>
          6 9 2 7 -1.</_>
        <_>
          7 9 1 7 2.</_></rects>
      <tilted>0</tilted></_>
    <_>
      <rects>
        <_>
          6 11 3 3 -1.</_>
        <_>
          7 11 1 3 3.</_></rects>
      <tilted>0</tilted></_>
    <_>
      <rects>
        <_>
          6 11 11 6 -1.</_>
        <_>
          6 13 11 2 3.</_></rects>
      <tilted>0</tilted></_>
    <_>
      <rects>
        <_>
          6 12 13 2 -1.</_>
        <_>
          6 13 13 1 2.</_></rects>
      <tilted>0</tilted></_>
    <_>
      <rects>
        <_>
          6 15 8 2 -1.</_>
        <_>
          6 15 4 1 2.</_>
        <_>
          10 16 4 1 2.</_></rects>
      <tilted>0</tilted></_>
    <_>
      <rects>
        <_>
          7 0 1 3 -1.</_>
        <_>
          7 1 1 1 3.</_></rects>
      <tilted>0</tilted></_>
    <_>
      <rects>
        <_>
          7 0 2 15 -1.</_>
        <_>
          7 5 2 5 3.</_></rects>
      <tilted>0</tilted></_>
    <_>
      <rects>
        <_>
          7 2 2 10 -1.</_>
        <_>
          7 2 1 5 2.</_>
        <_>
          8 7 1 5 2.</_></rects>
      <tilted>0</tilted></_>
    <_>
      <rects>
        <_>
          7 3 6 6 -1.</_>
        <_>
          7 3 3 3 2.</_>
        <_>
          10 6 3 3 2.</_></rects>
      <tilted>0</tilted></_>
    <_>
      <rects>
        <_>
          7 3 10 6 -1.</_>
        <_>
          7 5 10 2 3.</_></rects>
      <tilted>0</tilted></_>
    <_>
      <rects>
        <_>
          7 7 4 8 -1.</_>
        <_>
          7 7 2 4 2.</_>
        <_>
          9 11 2 4 2.</_></rects>
      <tilted>0</tilted></_>
    <_>
      <rects>
        <_>
          7 10 11 9 -1.</_>
        <_>
          7 13 11 3 3.</_></rects>
      <tilted>0</tilted></_>
    <_>
      <rects>
        <_>
          7 11 10 6 -1.</_>
        <_>
          7 13 10 2 3.</_></rects>
      <tilted>0</tilted></_>
    <_>
      <rects>
        <_>
          7 12 10 2 -1.</_>
        <_>
          7 13 10 1 2.</_></rects>
      <tilted>0</tilted></_>
    <_>
      <rects>
        <_>
          7 18 8 6 -1.</_>
        <_>
          7 20 8 2 3.</_></rects>
      <tilted>0</tilted></_>
    <_>
      <rects>
        <_>
          8 0 15 1 -1.</_>
        <_>
          13 0 5 1 3.</_></rects>
      <tilted>0</tilted></_>
    <_>
      <rects>
        <_>
          8 1 9 6 -1.</_>
        <_>
          8 4 9 3 2.</_></rects>
      <tilted>0</tilted></_>
    <_>
      <rects>
        <_>
          8 11 3 4 -1.</_>
        <_>
          8 13 3 2 2.</_></rects>
      <tilted>0</tilted></_>
    <_>
      <rects>
        <_>
          8 15 4 2 -1.</_>
        <_>
          8 15 2 1 2.</_>
        <_>
          10 16 2 1 2.</_></rects>
      <tilted>0</tilted></_>
    <_>
      <rects>
        <_>
          9 1 6 9 -1.</_>
        <_>
          9 4 6 3 3.</_></rects>
      <tilted>0</tilted></_>
    <_>
      <rects>
        <_>
          9 1 7 9 -1.</_>
        <_>
          9 4 7 3 3.</_></rects>
      <tilted>0</tilted></_>
    <_>
      <rects>
        <_>
          9 10 6 3 -1.</_>
        <_>
          11 10 2 3 3.</_></rects>
      <tilted>0</tilted></_>
    <_>
      <rects>
        <_>
          9 11 1 4 -1.</_>
        <_>
          9 13 1 2 2.</_></rects>
      <tilted>0</tilted></_>
    <_>
      <rects>
        <_>
          9 12 4 2 -1.</_>
        <_>
          9 12 2 1 2.</_>
        <_>
          11 13 2 1 2.</_></rects>
      <tilted>0</tilted></_>
    <_>
      <rects>
        <_>
          9 12 7 3 -1.</_>
        <_>
          9 13 7 1 3.</_></rects>
      <tilted>0</tilted></_>
    <_>
      <rects>
        <_>
          9 22 5 2 -1.</_>
        <_>
          9 23 5 1 2.</_></rects>
      <tilted>0</tilted></_>
    <_>
      <rects>
        <_>
          10 10 2 3 -1.</_>
        <_>
          11 10 1 3 2.</_></rects>
      <tilted>0</tilted></_>
    <_>
      <rects>
        <_>
          10 15 4 3 -1.</_>
        <_>
          10 16 4 1 3.</_></rects>
      <tilted>0</tilted></_>
    <_>
      <rects>
        <_>
          10 16 5 3 -1.</_>
        <_>
          10 17 5 1 3.</_></rects>
      <tilted>0</tilted></_>
    <_>
      <rects>
        <_>
          11 0 1 6 -1.</_>
        <_>
          11 3 1 3 2.</_></rects>
      <tilted>0</tilted></_>
    <_>
      <rects>
        <_>
          11 4 8 6 -1.</_>
        <_>
          11 4 4 3 2.</_>
        <_>
          15 7 4 3 2.</_></rects>
      <tilted>0</tilted></_>
    <_>
      <rects>
        <_>
          11 13 4 3 -1.</_>
        <_>
          11 14 4 1 3.</_></rects>
      <tilted>0</tilted></_>
    <_>
      <rects>
        <_>
          11 14 3 3 -1.</_>
        <_>
          11 15 3 1 3.</_></rects>
      <tilted>0</tilted></_>
    <_>
      <rects>
        <_>
          11 14 7 2 -1.</_>
        <_>
          11 15 7 1 2.</_></rects>
      <tilted>0</tilted></_>
    <_>
      <rects>
        <_>
          12 2 6 8 -1.</_>
        <_>
          12 2 3 4 2.</_>
        <_>
          15 6 3 4 2.</_></rects>
      <tilted>0</tilted></_>
    <_>
      <rects>
        <_>
          12 9 2 4 -1.</_>
        <_>
          13 9 1 4 2.</_></rects>
      <tilted>0</tilted></_>
    <_>
      <rects>
        <_>
          12 10 2 3 -1.</_>
        <_>
          13 10 1 3 2.</_></rects>
      <tilted>0</tilted></_>
    <_>
      <rects>
        <_>
          12 10 1 8 -1.</_>
        <_>
          12 14 1 4 2.</_></rects>
      <tilted>0</tilted></_>
    <_>
      <rects>
        <_>
          12 15 4 2 -1.</_>
        <_>
          12 15 2 1 2.</_>
        <_>
          14 16 2 1 2.</_></rects>
      <tilted>0</tilted></_>
    <_>
      <rects>
        <_>
          13 4 6 6 -1.</_>
        <_>
          13 4 3 3 2.</_>
        <_>
          16 7 3 3 2.</_></rects>
      <tilted>0</tilted></_>
    <_>
      <rects>
        <_>
          13 12 3 2 -1.</_>
        <_>
          13 13 3 1 2.</_></rects>
      <tilted>0</tilted></_>
    <_>
      <rects>
        <_>
          14 0 10 22 -1.</_>
        <_>
          19 0 5 22 2.</_></rects>
      <tilted>0</tilted></_>
    <_>
      <rects>
        <_>
          14 2 10 11 -1.</_>
        <_>
          19 2 5 11 2.</_></rects>
      <tilted>0</tilted></_>
    <_>
      <rects>
        <_>
          14 7 6 4 -1.</_>
        <_>
          16 7 2 4 3.</_></rects>
      <tilted>0</tilted></_>
    <_>
      <rects>
        <_>
          15 0 7 10 -1.</_>
        <_>
          15 5 7 5 2.</_></rects>
      <tilted>0</tilted></_>
    <_>
      <rects>
        <_>
          15 3 4 12 -1.</_>
        <_>
          15 3 2 6 2.</_>
        <_>
          17 9 2 6 2.</_></rects>
      <tilted>0</tilted></_>
    <_>
      <rects>
        <_>
          15 6 4 6 -1.</_>
        <_>
          15 6 2 3 2.</_>
        <_>
          17 9 2 3 2.</_></rects>
      <tilted>0</tilted></_>
    <_>
      <rects>
        <_>
          15 8 6 11 -1.</_>
        <_>
          17 8 2 11 3.</_></rects>
      <tilted>0</tilted></_>
    <_>
      <rects>
        <_>
          15 9 6 6 -1.</_>
        <_>
          17 9 2 6 3.</_></rects>
      <tilted>0</tilted></_>
    <_>
      <rects>
        <_>
          16 1 2 10 -1.</_>
        <_>
          16 6 2 5 2.</_></rects>
      <tilted>0</tilted></_>
    <_>
      <rects>
        <_>
          16 3 2 12 -1.</_>
        <_>
          16 3 1 6 2.</_>
        <_>
          17 9 1 6 2.</_></rects>
      <tilted>0</tilted></_>
    <_>
      <rects>
        <_>
          16 4 2 10 -1.</_>
        <_>
          16 4 1 5 2.</_>
        <_>
          17 9 1 5 2.</_></rects>
      <tilted>0</tilted></_>
    <_>
      <rects>
        <_>
          16 6 1 15 -1.</_>
        <_>
          16 11 1 5 3.</_></rects>
      <tilted>0</tilted></_>
    <_>
      <rects>
        <_>
          16 6 4 4 -1.</_>
        <_>
          18 6 2 4 2.</_></rects>
      <tilted>0</tilted></_>
    <_>
      <rects>
        <_>
          16 7 6 5 -1.</_>
        <_>
          19 7 3 5 2.</_></rects>
      <tilted>0</tilted></_>
    <_>
      <rects>
        <_>
          16 8 6 3 -1.</_>
        <_>
          19 8 3 3 2.</_></rects>
      <tilted>0</tilted></_>
    <_>
      <rects>
        <_>
          16 9 2 10 -1.</_>
        <_>
          17 9 1 10 2.</_></rects>
      <tilted>0</tilted></_>
    <_>
      <rects>
        <_>
          16 10 2 5 -1.</_>
        <_>
          17 10 1 5 2.</_></rects>
      <tilted>0</tilted></_>
    <_>
      <rects>
        <_>
          16 10 8 11 -1.</_>
        <_>
          20 10 4 11 2.</_></rects>
      <tilted>0</tilted></_>
    <_>
      <rects>
        <_>
          20 2 1 9 -1.</_>
        <_>
          20 5 1 3 3.</_></rects>
      <tilted>0</tilted></_>
    <_>
      <rects>
        <_>
          21 3 3 12 -1.</_>
        <_>
          21 9 3 6 2.</_></rects>
      <tilted>0</tilted></_>
    <_>
      <rects>
        <_>
          22 9 2 6 -1.</_>
        <_>
          22 12 2 3 2.</_></rects>
      <tilted>0</tilted></_>
    <_>
      <rects>
        <_>
          22 11 1 6 -1.</_>
        <_>
          22 14 1 3 2.</_></rects>
      <tilted>0</tilted></_>
    <_>
      <rects>
        <_>
          22 11 2 6 -1.</_>
        <_>
          22 13 2 2 3.</_></rects>
      <tilted>0</tilted></_>
    <_>
      <rects>
        <_>
          22 13 2 6 -1.</_>
        <_>
          22 15 2 2 3.</_></rects>
      <tilted>0</tilted></_>
    <_>
      <rects>
        <_>
          22 15 2 4 -1.</_>
        <_>
          22 17 2 2 2.</_></rects>
      <tilted>0</tilted></_>
    <_>
      <rects>
        <_>
          23 2 1 18 -1.</_>
        <_>
          23 8 1 6 3.</_></rects>
      <tilted>0</tilted></_>
    <_>
      <rects>
        <_>
          23 6 1 9 -1.</_>
        <_>
          23 9 1 3 3.</_></rects>
      <tilted>0</tilted></_>
    <_>
      <rects>
        <_>
          23 7 1 6 -1.</_>
        <_>
          23 9 1 2 3.</_></rects>
      <tilted>0</tilted></_>
    <_>
      <rects>
        <_>
          23 8 1 4 -1.</_>
        <_>
          23 10 1 2 2.</_></rects>
      <tilted>0</tilted></_>
    <_>
      <rects>
        <_>
          23 11 1 4 -1.</_>
        <_>
          23 13 1 2 2.</_></rects>
      <tilted>0</tilted></_>
    <_>
      <rects>
        <_>
          23 13 1 4 -1.</_>
        <_>
          23 15 1 2 2.</_></rects>
      <tilted>0</tilted></_>
    <_>
      <rects>
        <_>
          23 16 1 4 -1.</_>
        <_>
          23 18 1 2 2.</_></rects>
      <tilted>0</tilted></_></features></cascade>
</opencv_storage>
